114042 50 #File: vec.bin
</s> 0.198994 0.219711 -0.190422 -0.162968 0.067939 0.150194 0.046775 0.010506 -0.179149 0.110292 -0.216578 0.062121 -0.037353 -0.047586 -0.164842 -0.093572 0.128232 0.150406 0.147607 0.079417 0.076800 -0.189049 -0.203621 0.247066 0.188980 0.153622 -0.030025 0.199639 -0.024609 0.036526 -0.007419 -0.148312 0.065239 -0.066491 -0.190179 0.236354 0.217716 -0.054444 -0.011242 0.025314 -0.180848 -0.199214 0.226440 0.003133 -0.128384 -0.151240 -0.152947 0.084363 0.010013 0.066172
, -0.006928 0.031052 -0.140201 0.041724 0.123242 0.190794 0.203675 -0.113365 -0.185090 -0.064685 -0.121526 -0.181298 -0.168961 -0.101821 0.065601 0.017016 0.185144 0.166453 -0.037932 -0.035018 0.085429 0.268255 0.209383 -0.174111 -0.297756 -0.163482 -0.009407 -0.060967 -0.124566 -0.165751 -0.313936 0.067265 -0.071646 0.182648 -0.059417 0.218453 -0.155121 -0.115864 0.083180 0.011243 0.043711 0.126674 -0.200785 0.076185 -0.034229 0.057695 0.143920 -0.106381 -0.098294 -0.119184
. -0.065975 0.037477 0.009166 0.189686 0.044195 0.098803 0.107485 -0.064479 -0.045651 -0.141465 0.099904 -0.063798 -0.094544 -0.082237 0.171831 0.101691 -0.127171 0.147792 -0.163068 -0.020603 0.141402 0.136974 0.219767 -0.155362 -0.263290 -0.171139 0.062929 -0.036967 -0.140195 -0.054274 -0.067326 0.125838 -0.059307 0.270899 -0.078861 0.342242 0.102977 -0.178348 0.182673 -0.063852 0.066294 0.176532 -0.302609 0.140813 -0.114922 -0.020522 0.024977 -0.155762 -0.222827 -0.025948
the -0.147404 -0.030840 -0.020694 0.023617 -0.059968 -0.218174 0.065429 -0.111840 -0.199702 -0.053980 -0.164187 -0.065125 -0.329183 -0.261769 -0.099997 0.335120 0.052471 0.185267 0.136528 0.126488 0.068405 0.037022 0.086991 0.019716 -0.158666 -0.097603 -0.072622 -0.051868 -0.241315 0.112409 -0.190365 -0.102333 0.173091 0.214270 -0.171160 0.135202 -0.100616 -0.126148 0.009865 0.076331 -0.082064 0.040625 0.001139 -0.104827 0.099331 0.039002 0.221366 0.047286 -0.211125 -0.084951
' -0.119614 -0.128246 -0.201903 0.248234 -0.118412 0.248457 0.049877 -0.000958 0.009010 0.079851 -0.044198 -0.090114 -0.196456 -0.220674 -0.069245 0.023524 0.104477 0.242169 0.075228 -0.027278 -0.172762 0.171956 0.160289 -0.083695 0.018765 0.037060 0.169534 0.103287 -0.244658 -0.050384 0.048249 0.082751 0.132116 0.047339 0.009328 0.229450 -0.068716 -0.024506 0.099898 -0.100686 -0.129128 0.117975 -0.379899 -0.054909 0.103318 -0.119876 0.239736 0.038224 -0.112636 -0.161856
of -0.152241 -0.027582 0.030578 -0.031200 0.104365 -0.112139 0.046842 -0.129275 -0.085781 -0.048931 -0.007104 -0.254442 -0.275119 -0.237534 -0.032526 0.161734 0.141154 0.151928 0.203265 0.013780 0.022882 0.083283 0.129384 0.094404 -0.044225 -0.009447 -0.207320 -0.099334 -0.201932 0.044296 -0.305234 0.062154 0.132425 0.314222 -0.159205 0.146449 -0.075661 -0.284468 0.272647 0.065641 0.106964 0.092170 -0.094602 0.028823 0.038604 -0.064124 0.110307 -0.036843 -0.048556 0.077843
a -0.359033 0.038447 0.045773 -0.012491 0.032873 -0.313899 0.186034 -0.020146 -0.240800 -0.150423 0.032009 -0.112790 -0.367133 -0.131969 0.050319 0.031957 0.062652 0.239772 0.081617 0.059476 0.253699 0.077905 0.073087 -0.163698 -0.226914 -0.202805 -0.006199 -0.138903 -0.080611 0.154165 -0.053775 0.058381 0.119490 0.051677 -0.053364 0.121007 -0.215246 0.066789 0.036082 -0.070190 -0.060841 0.021965 -0.080270 0.091474 -0.062754 -0.088176 0.063865 -0.042821 -0.135882 -0.115664
and -0.044799 -0.030843 0.057040 0.162183 0.107489 0.120905 0.206209 -0.113057 -0.135758 0.056897 -0.015680 -0.265961 -0.391634 -0.177667 0.178896 0.230078 0.140986 0.024116 0.016792 0.169340 0.060421 0.067032 0.083970 -0.015033 -0.063934 -0.128911 -0.062430 -0.099445 -0.058901 -0.081088 -0.311036 0.101157 0.032723 0.270083 0.017205 0.150993 0.061075 -0.173107 0.151199 0.165524 0.045146 0.103336 -0.101272 0.104920 -0.062557 0.173023 0.142546 -0.022269 0.030705 -0.190979
to -0.140772 -0.120452 0.146512 0.205305 -0.111425 0.237509 0.179449 -0.090916 -0.113383 -0.277785 0.147238 -0.082639 -0.255882 -0.409050 0.026751 0.085295 -0.095767 0.078434 0.019353 0.017412 0.047172 -0.053942 0.219169 -0.201737 -0.076744 -0.031624 -0.097885 -0.049738 -0.082993 0.124055 -0.161094 -0.068268 -0.176201 0.052671 0.008258 0.130948 0.102824 0.005368 -0.188024 0.062588 0.189251 -0.044421 0.034571 0.151336 0.013793 0.154295 -0.028507 0.125108 -0.216133 0.042119
