155837 300
</s> 0.001334 0.001473 -0.001277 -0.001093 0.000456 0.001007 0.000314 0.000070 -0.001201 0.000739 -0.001452 0.000417 -0.000250 -0.000319 -0.001105 -0.000627 0.000860 0.001008 0.000990 0.000532 0.000515 -0.001268 -0.001365 0.001657 0.001267 0.001030 -0.000201 0.001339 -0.000165 0.000245 -0.000050 -0.000994 0.000437 -0.000446 -0.001275 0.001585 0.001460 -0.000365 -0.000075 0.000170 -0.001213 -0.001336 0.001518 0.000021 -0.000861 -0.001014 -0.001025 0.000566 0.000067 0.000444 -0.001405 -0.001269 -0.000043 0.000381 0.000850 -0.001057 0.001360 0.000309 0.000373 -0.000203 0.000995 -0.000763 -0.000699 0.000719 -0.000251 0.000344 0.000602 -0.001363 -0.000661 0.000971 0.001411 0.001311 -0.001016 -0.000703 -0.000303 0.000667 -0.001263 0.000999 0.000929 -0.000533 -0.000517 -0.000746 0.001410 0.001304 -0.000393 0.001405 0.001607 0.000605 0.001661 -0.001037 -0.000511 -0.000702 -0.000969 0.000938 0.000526 0.000142 -0.000731 0.000508 0.001020 0.000065 0.000760 -0.001651 0.001438 0.000160 -0.000610 -0.000694 -0.000249 -0.000978 -0.001457 -0.000946 0.001426 -0.000590 -0.000893 0.000772 -0.000568 0.001586 -0.000535 -0.001530 0.000905 -0.000025 -0.001163 0.000325 0.000481 -0.000160 0.000608 -0.001319 0.000294 0.000606 -0.001003 0.000047 -0.000020 -0.000800 -0.000944 -0.001565 0.000008 0.000051 0.000003 -0.001311 -0.001654 -0.001582 -0.001442 -0.000182 0.000464 0.000395 -0.001061 0.001666 -0.000670 -0.000425 -0.000468 0.001578 -0.001255 0.000387 -0.000445 0.001063 0.000014 0.001423 -0.000940 -0.000868 -0.001397 -0.001222 -0.001066 -0.001038 0.000815 -0.000622 0.000893 0.001230 0.000452 0.000984 0.000825 0.000780 -0.001184 -0.001144 -0.001219 -0.000044 0.001377 -0.000912 -0.001020 -0.001399 0.001102 -0.001393 -0.000193 0.000726 -0.001539 -0.001493 0.000481 0.001175 0.001421 0.000715 0.001054 -0.001043 -0.001213 0.001325 -0.000922 0.000584 0.000191 0.000597 -0.000394 0.000066 -0.000562 -0.000376 -0.001478 -0.001087 0.001162 0.000335 -0.000788 -0.000531 0.000832 -0.001178 -0.000771 0.001578 0.001416 -0.001320 0.000290 -0.000750 0.000051 0.001002 0.001615 0.000662 0.001371 0.001049 -0.000077 0.001492 0.000845 0.001580 -0.000568 0.001582 0.001443 -0.000476 -0.001473 0.001611 0.000299 -0.000693 -0.000239 -0.000245 -0.001284 -0.000477 -0.000148 -0.001642 -0.001172 -0.000401 -0.000314 0.000597 0.000272 -0.000205 0.000982 0.000482 0.000183 0.001206 -0.000375 -0.000476 -0.000138 -0.000909 -0.001000 0.000067 0.001446 -0.000456 -0.000007 -0.001378 0.001236 -0.000507 0.000989 -0.000803 -0.000298 0.000031 0.001208 -0.000029 0.001478 -0.000248 0.000700 -0.000046 -0.001301 0.001417 0.000352 -0.001010 0.001003 -0.001382 -0.001451 0.001089 -0.001144 -0.000883 0.001176 0.001095 0.000228 0.001508 0.001619 0.001352 0.000588 -0.001450 0.000763 -0.001631 -0.000429 0.000504 0.000327 -0.000508 0.000979 -0.001536 -0.000470 -0.000437 -0.000552 0.001024
的 0.043793 -0.006261 -0.156865 -0.124435 0.060389 0.016442 0.028575 0.043807 -0.051840 -0.012602 0.032251 0.076886 -0.047791 0.015459 -0.104153 0.015359 -0.056893 0.054031 -0.034410 0.024154 0.097180 0.037391 0.051725 0.040609 -0.006665 -0.106028 -0.015241 -0.001977 -0.080311 -0.013295 0.068721 -0.094370 -0.051557 -0.200689 0.085728 -0.120083 0.024802 -0.132226 -0.033947 -0.174847 -0.009580 -0.008404 0.128710 0.015460 0.025136 0.118938 -0.106066 -0.071201 0.075478 -0.012165 0.030378 -0.079146 0.022908 -0.062620 0.055454 0.037198 -0.005614 0.009006 0.126645 0.188350 -0.004766 0.015115 -0.028095 0.028183 -0.016055 -0.035911 0.102100 -0.000500 -0.228964 -0.031945 -0.026771 -0.108146 -0.152354 0.002302 -0.038781 0.064897 -0.035251 -0.215012 -0.157539 -0.007631 -0.167764 0.018065 0.042153 0.044697 0.045864 0.015317 0.052128 -0.051653 0.103696 0.016727 -0.091841 -0.001457 -0.015162 -0.011214 -0.045961 0.014659 0.024683 -0.130662 -0.092230 -0.107519 0.060752 0.051490 0.015707 -0.077727 0.064448 0.028230 -0.061025 0.032849 -0.131393 0.064870 -0.002783 -0.026673 0.010671 -0.054870 0.150148 -0.017784 0.071677 -0.094702 0.077678 0.009208 -0.018744 -0.003970 0.009993 -0.057740 0.000009 0.075376 -0.041535 -0.056643 -0.070262 0.000004 0.051647 -0.005480 0.109214 -0.002732 0.136229 0.119773 0.001753 0.069469 0.037319 0.070559 -0.113883 -0.004728 0.174985 -0.087271 -0.046792 0.078351 -0.181586 -0.056222 0.057282 0.064933 -0.100488 -0.070954 -0.031166 -0.029403 0.018269 -0.002994 -0.017164 0.010448 0.092708 0.056626 -0.037081 0.003982 0.034712 0.007114 -0.095894 0.026982 -0.055719 0.002161 -0.029660 -0.092503 0.030688 0.099214 -0.075958 0.049287 -0.089664 -0.009371 -0.055252 0.020714 0.028760 -0.110652 -0.021652 0.074948 -0.121764 -0.110828 0.190309 -0.091825 -0.024294 -0.103570 -0.038662 -0.036066 0.019584 -0.126904 -0.045004 -0.126339 -0.061320 0.023857 -0.002795 0.014904 0.101365 0.175171 0.129634 0.048890 0.081937 0.057388 -0.099464 -0.061944 -0.001096 0.107021 -0.005481 0.107589 0.000968 -0.092065 -0.017231 0.006058 -0.012264 0.163221 0.056861 0.050968 -0.011187 -0.107363 -0.028220 -0.053861 -0.126936 0.016675 -0.023823 0.136776 0.003717 -0.005662 -0.116273 0.076182 0.017574 -0.002199 0.021419 0.027051 0.067233 0.086842 0.099538 0.153095 0.080995 -0.021278 0.026677 0.077373 -0.052698 -0.089465 -0.023873 0.039335 0.058481 0.023518 0.034735 0.133663 0.112674 -0.021464 0.068250 -0.089545 0.061270 0.053413 0.002547 0.159625 -0.050830 -0.039194 -0.032825 -0.054739 -0.003412 0.031368 0.047674 0.119692 0.049879 -0.064598 -0.141839 -0.023364 -0.144710 0.143055 0.074279 0.055966 -0.092651 -0.008697 -0.042597 0.123053 0.004524 -0.013921 -0.034192 -0.051914 -0.039913 -0.067004 -0.057491 0.015758 -0.096695 0.087972 -0.027181 0.041880 0.118056 0.014823 0.056856 0.027489 0.154546 0.092174 0.075898 -0.086052 0.061229 0.208003
。 0.130567 0.027271 -0.153975 -0.130986 0.091547 -0.000934 0.108707 -0.116774 0.072877 0.107973 0.094245 0.208096 -0.197350 0.145211 -0.091085 0.001266 -0.029537 0.113358 -0.047087 0.041864 -0.080051 0.047100 -0.016980 -0.131204 0.078307 -0.055261 -0.116531 -0.022511 -0.139633 0.084053 0.043394 0.160596 -0.286706 -0.150457 0.032204 -0.040322 -0.145768 0.033649 0.006294 -0.116337 -0.033917 -0.112682 0.166227 -0.065782 -0.072006 0.121519 -0.019173 -0.026064 -0.091291 0.096178 0.048413 -0.029705 0.024435 0.002952 0.031786 -0.192398 0.062789 -0.047148 0.101762 0.271619 0.032100 -0.043415 0.207513 0.068473 -0.080687 -0.029749 0.173985 0.009640 -0.239307 -0.044832 0.058171 -0.176552 -0.017320 0.013438 0.023221 -0.013205 0.012583 -0.041273 0.074022 -0.094555 -0.173533 0.140238 -0.045830 0.064036 -0.076040 -0.002825 0.060195 0.074934 -0.020363 0.019198 -0.060867 -0.000113 0.100340 0.058534 -0.047168 0.067983 -0.059514 -0.102006 -0.057392 -0.020693 0.236927 0.006941 0.042071 -0.112234 0.037613 -0.103225 -0.010321 0.005091 -0.100313 0.084156 -0.038543 0.049217 0.041308 0.071079 0.079716 -0.032995 -0.051429 -0.077542 0.001475 -0.012576 0.035390 0.209193 0.057352 -0.109997 -0.027396 0.110301 -0.073779 -0.075849 -0.153029 0.005912 0.125290 0.138191 0.084683 0.067682 0.031592 0.042231 -0.015493 0.028784 0.251621 0.062961 -0.038485 0.081384 0.263022 -0.116790 -0.121087 0.068110 -0.167117 -0.042527 0.152810 0.055355 -0.138909 -0.107876 -0.105505 -0.048434 0.121736 0.048205 -0.070076 0.015267 0.077831 0.054822 -0.019019 0.239855 -0.218974 0.145849 0.004893 -0.018591 -0.059939 -0.058331 -0.027545 -0.092396 -0.122262 0.114118 0.035390 0.069491 0.038819 -0.056761 -0.055174 0.127669 0.087994 -0.083439 0.103083 0.082494 -0.053420 -0.115307 0.152640 -0.135993 0.057248 -0.236358 -0.046175 -0.088114 0.073991 -0.196307 0.096955 -0.262713 0.003599 0.161050 0.015643 -0.047617 0.167815 0.267118 0.052490 0.014332 -0.010432 0.136822 -0.152059 -0.126430 0.057389 0.150044 0.032852 0.182409 -0.081459 -0.000122 0.046395 0.047693 -0.003054 0.157974 -0.022665 0.087452 0.125280 -0.156864 -0.111786 0.007720 -0.291670 0.056648 0.148132 0.105302 -0.056337 0.116775 0.073648 0.036500 -0.004178 0.046128 -0.018599 -0.053110 0.098942 -0.078940 0.101260 0.128271 -0.157606 0.043381 0.125647 0.158975 -0.148631 -0.084365 -0.021429 0.036226 0.085970 -0.044230 0.020712 0.251989 0.271236 -0.071063 0.036548 -0.131390 0.049258 0.200638 0.109204 0.099002 -0.279423 0.089909 0.056624 0.002221 -0.059459 -0.008644 -0.113671 0.178319 -0.061793 0.012060 -0.226200 -0.057016 -0.026679 0.049302 0.136042 0.072478 -0.075598 -0.092097 0.000857 0.038636 0.158952 -0.068166 -0.026296 -0.070981 -0.098330 0.057326 -0.108570 0.097293 0.106556 0.184263 -0.023791 -0.057194 0.017387 -0.045394 0.117688 -0.090581 0.022824 0.245185 0.156110 -0.095151 0.005202 0.146489
是 0.002755 -0.037406 -0.106084 -0.038103 0.097037 -0.001807 0.043216 0.219376 -0.095313 -0.091936 0.063883 0.040368 0.113520 0.020198 -0.005218 0.047573 0.014772 0.057370 -0.077025 0.095574 0.109463 0.045675 -0.002276 0.041285 -0.065065 -0.005643 -0.086539 -0.081930 -0.026836 -0.051071 0.066779 -0.203638 0.050575 -0.271385 0.103989 -0.062280 0.092083 -0.110279 -0.024792 -0.227471 -0.050786 -0.101262 0.023262 0.006577 -0.088801 0.018150 0.032706 0.006339 0.089929 -0.145687 -0.141198 -0.134411 0.113776 -0.003086 -0.054279 0.066625 -0.014269 0.046734 0.018801 0.142026 -0.093347 -0.001062 -0.035048 -0.000396 -0.062701 -0.007302 -0.089920 0.062445 -0.191585 0.087761 -0.006859 0.009126 -0.315526 -0.016464 0.063040 0.104653 0.109582 -0.300268 -0.233595 0.008667 0.040090 -0.000488 0.121349 0.151359 -0.031587 0.001883 -0.016302 -0.076908 0.092135 0.057157 -0.146678 0.017148 -0.079581 0.017299 0.039442 -0.188528 0.036545 -0.111364 -0.046715 -0.015387 0.063294 0.054751 -0.004825 0.006871 -0.042652 0.050487 -0.012298 0.103545 -0.144784 0.025695 -0.197250 -0.046592 0.017104 -0.027788 0.045851 -0.099865 0.110372 0.134504 0.080268 -0.042733 -0.034151 -0.009157 0.000943 -0.004619 0.138734 -0.009079 0.111989 -0.007344 0.045578 -0.031068 0.152554 -0.121603 -0.075069 -0.081008 0.231139 0.154587 -0.009247 0.028020 0.016954 0.090149 -0.025196 -0.038612 0.153802 -0.069190 0.123716 0.057661 -0.163660 -0.037636 -0.045110 0.104434 -0.188038 -0.144492 -0.127028 0.004025 0.030581 -0.024208 -0.046247 0.072733 0.120237 0.002312 0.043371 -0.073143 0.186752 -0.004100 -0.115229 0.054385 0.010992 -0.070227 -0.044721 0.002497 0.075944 -0.073714 0.042055 0.001925 -0.043711 -0.116852 0.135987 -0.203445 -0.026680 -0.035339 -0.109174 -0.062531 -0.142475 -0.035698 0.214051 -0.099140 -0.126323 -0.027583 0.075912 -0.074825 0.059934 0.048418 0.036403 -0.035444 -0.087153 -0.099039 -0.127290 0.128979 0.075130 0.132957 0.098102 0.056407 0.021895 0.009936 -0.022110 0.004768 -0.015414 0.021489 -0.054382 0.064856 -0.042795 -0.145671 0.014472 0.118212 -0.064018 0.260868 -0.070621 0.004460 -0.009255 -0.103105 0.118832 0.075593 -0.053412 -0.043547 -0.135613 -0.020742 0.055009 0.006472 0.005183 0.085416 0.012744 -0.037482 0.035095 -0.025682 -0.076890 -0.002678 0.063209 0.194249 0.144175 -0.008598 0.078580 -0.014786 -0.114620 -0.047236 0.056586 -0.027316 0.124892 0.006933 0.076364 0.152813 0.033195 0.046386 0.154968 -0.090245 0.015219 0.074474 -0.026645 0.222894 -0.004758 -0.089298 0.001500 0.158553 0.029308 0.127319 0.046225 -0.008293 0.009384 -0.170874 -0.069769 0.075922 -0.160894 0.157111 0.082902 0.084728 -0.053251 -0.116630 0.027082 0.105427 0.054496 0.050250 -0.164901 -0.072488 -0.028005 -0.082677 0.079302 -0.086886 -0.119814 0.076351 -0.071449 0.114140 -0.074132 0.052457 0.120779 0.169708 0.145530 -0.051918 0.074017 -0.076287 0.175301 0.209296
， 0.113888 0.009277 -0.142029 -0.029051 0.170744 0.053858 0.065898 -0.078802 -0.060135 0.097264 0.001945 0.078735 0.103029 0.149039 0.034754 0.013029 0.044723 0.021885 -0.019623 0.022996 -0.066969 0.004714 0.114842 -0.003099 -0.030819 -0.109534 -0.066910 -0.010773 -0.142573 0.029390 0.136137 0.067955 -0.108028 -0.020862 -0.002920 -0.032608 -0.052131 -0.155337 -0.030163 -0.106690 -0.172535 -0.081566 0.051125 -0.057824 -0.089734 0.056933 -0.039384 0.001432 0.016254 0.006882 -0.110786 -0.116024 0.026341 0.139435 0.060682 -0.059904 0.024236 0.070015 0.081146 0.115259 -0.019032 0.069472 0.101114 0.002695 0.013466 -0.065834 0.156886 0.069679 -0.134112 -0.085360 0.066671 -0.122905 -0.119704 0.110326 0.108133 -0.043671 0.062064 -0.051629 -0.032667 -0.083691 -0.076115 0.103541 -0.068443 0.094156 -0.039047 0.008794 0.106624 0.026953 0.106876 -0.040950 -0.012243 -0.103793 0.006686 0.082363 -0.007409 -0.010525 -0.084624 -0.096306 -0.150702 -0.058821 0.159045 -0.051460 0.101185 -0.112420 0.041809 0.029857 -0.046459 0.033369 0.020612 0.047463 -0.065479 0.070860 0.041528 -0.067477 0.107419 -0.093226 0.083456 0.024209 0.071225 -0.013235 -0.014217 0.238897 -0.038417 -0.079422 0.015670 0.126202 0.059101 -0.124692 -0.060691 0.003848 0.050357 -0.014706 0.050919 0.034447 0.117666 0.051105 0.034715 0.017764 0.068432 0.011330 -0.035926 0.017488 0.168458 -0.058689 -0.070305 0.086218 -0.140979 0.002474 0.037155 0.052867 -0.132723 -0.129963 -0.140855 -0.016977 0.034414 -0.094124 0.080635 0.108952 0.121288 0.066038 -0.155941 0.116859 -0.003119 0.074805 0.067413 -0.009822 -0.046470 -0.090945 0.017486 0.007512 0.026441 0.085436 0.093679 0.116349 -0.099770 -0.099420 0.072637 -0.149338 0.067804 0.073202 -0.119563 0.144489 -0.027741 -0.068126 0.150041 -0.124077 -0.032336 -0.069798 0.037664 0.034058 0.076246 0.067885 0.093844 -0.049784 -0.105749 0.020773 0.053970 -0.002123 0.078783 0.176794 0.020278 -0.088592 -0.129561 -0.027663 -0.029607 -0.070341 0.035697 0.007809 -0.006638 0.030872 -0.094273 0.015411 0.116287 0.030121 -0.060882 0.122698 0.025982 0.003554 0.107576 -0.047195 -0.103007 -0.023719 -0.224095 -0.039924 -0.015674 0.039318 -0.017853 0.002679 -0.022901 -0.034598 0.024006 -0.028785 0.053997 0.063314 0.014797 -0.000978 0.062597 0.035765 -0.044580 -0.024670 0.026990 0.049184 -0.136841 -0.189469 0.019113 0.091009 -0.038048 -0.034264 0.072291 0.106414 0.238346 -0.026624 0.053769 -0.071330 -0.009478 0.075290 0.008853 0.058031 -0.096510 0.069618 -0.102019 0.041288 -0.009918 0.040467 0.111390 0.028459 -0.038162 0.035074 -0.166026 0.075849 0.005526 0.015991 0.083843 -0.034207 -0.020596 -0.114495 0.030138 0.002735 0.024752 -0.051901 -0.074320 -0.029276 0.091026 0.034213 0.038894 -0.038684 -0.034322 0.092905 -0.011607 -0.071234 0.068623 0.026493 0.170791 -0.027867 0.121608 0.093052 0.158026 0.000023 0.097221 0.112633
、 0.009350 -0.050883 0.197052 -0.224069 0.352215 0.052179 -0.211367 0.017934 -0.073220 -0.009230 0.082195 0.041926 0.001457 -0.008130 -0.010158 0.082521 0.196158 -0.035487 -0.139299 0.069647 0.007542 -0.066941 -0.180396 -0.000839 0.077959 0.007014 0.066911 0.227271 -0.205888 -0.018402 0.047412 0.022940 -0.120797 0.004830 -0.099988 -0.022657 0.018140 -0.116429 -0.096914 -0.344645 0.055747 0.054025 0.161949 0.022654 0.109725 0.112018 0.042976 0.047005 0.026201 -0.019919 -0.077520 -0.037569 0.213898 0.060341 0.032998 -0.032705 -0.028555 -0.113933 -0.027760 -0.097398 0.048832 0.037727 0.115430 0.055416 0.060389 0.118374 0.141249 -0.019711 -0.131129 -0.020813 0.047980 -0.172501 0.024683 0.091046 -0.011798 0.058602 0.032888 -0.180362 -0.085854 -0.044281 -0.021505 -0.013232 -0.114079 0.079135 0.074315 0.006674 -0.123332 0.067084 0.038991 0.076627 -0.167299 -0.036982 -0.062303 0.095407 0.154659 0.009774 0.073332 0.061238 0.064467 0.149680 0.085432 0.028649 0.101303 -0.127255 -0.098975 0.004237 0.046703 -0.196191 -0.024753 0.109171 0.036990 0.015394 0.037995 0.041960 0.050103 0.106888 0.134524 0.030144 0.058635 -0.129390 0.067847 0.151011 -0.167070 0.006388 0.095278 -0.087006 -0.131761 -0.085749 -0.212372 -0.016887 0.080580 -0.150755 0.051878 0.002248 -0.063301 0.011476 -0.037389 -0.045868 0.104122 0.244160 -0.193572 -0.032413 0.328762 -0.040457 -0.188053 0.018348 -0.226714 0.004453 0.112803 0.016579 -0.142524 0.063474 -0.017707 -0.016557 -0.097345 0.011113 -0.059358 0.023465 0.039688 0.207731 -0.046209 -0.045990 -0.110383 0.028027 0.099778 -0.099210 0.165354 0.007493 -0.173830 -0.052190 0.100470 0.119104 -0.110120 -0.003330 0.083210 -0.002065 0.031491 0.015097 0.062473 -0.058207 0.136308 -0.146826 -0.003450 -0.019664 0.118012 -0.164637 -0.000268 -0.033188 0.037048 -0.022280 -0.013967 0.113505 0.103025 -0.003879 -0.034564 0.078605 0.061356 -0.045447 0.119316 0.135406 -0.018226 -0.076818 -0.075472 0.015949 -0.111600 -0.088230 -0.039378 -0.037468 -0.007353 0.076563 -0.022332 -0.090387 0.047885 0.102081 -0.018613 0.137189 0.185315 0.110759 0.008562 -0.136523 -0.239869 0.022768 -0.127988 -0.091364 0.001863 0.081282 -0.020962 0.056528 -0.087291 0.061917 -0.009283 0.115528 0.032755 -0.082445 -0.065971 0.007303 0.009791 0.148129 0.019665 0.012016 -0.069558 0.020684 -0.105067 -0.205762 0.005854 0.045916 0.050667 -0.051706 0.141020 -0.064979 -0.022229 0.007560 -0.120720 -0.144850 -0.149147 0.077020 0.133469 -0.002021 0.010560 0.151596 -0.059466 -0.130896 0.056521 -0.039128 0.155554 -0.082291 -0.024632 0.027334 0.149059 0.054814 0.225946 0.113848 0.188372 -0.031636 -0.008466 0.177975 0.075455 -0.042732 0.086294 0.002204 0.046824 -0.092436 -0.054725 0.103662 -0.089892 0.031249 0.017309 0.263914 0.076470 -0.034804 0.001635 0.062375 0.062624 0.041517 0.138880 0.089815 0.106992 -0.184142 0.062527 0.104352
) 0.017955 -0.017660 -0.149055 -0.058298 -0.041517 -0.001368 -0.058120 -0.218367 0.028255 0.038983 0.036942 -0.060681 0.039750 0.053685 -0.089311 0.009635 0.289493 -0.239289 0.242387 0.065533 0.202635 0.026814 -0.070302 -0.097551 -0.116519 -0.067527 0.155516 -0.140295 -0.046469 -0.085318 -0.046827 -0.101250 0.119316 -0.221119 -0.051413 -0.055245 0.111582 -0.129993 0.055812 -0.008854 -0.178923 -0.122344 0.115251 -0.085659 0.107334 -0.070304 0.167704 0.101951 0.073414 0.059937 -0.071713 -0.018080 0.107467 0.119970 -0.120701 0.041481 -0.007949 0.014987 0.112223 0.242094 -0.212366 0.050044 -0.080328 0.033602 -0.020614 0.179733 -0.015969 -0.126779 0.020923 0.000281 0.216286 -0.161810 -0.220317 -0.072467 -0.101918 0.039253 0.247196 -0.200357 -0.198287 0.054657 -0.087416 -0.000248 -0.116116 0.188497 0.175809 0.030808 0.158411 0.106969 0.317041 -0.034241 -0.100961 -0.076758 -0.010502 0.141358 0.236584 0.018444 0.086269 0.013579 0.088008 -0.092005 -0.041732 0.025777 -0.095312 -0.001885 0.006320 0.125875 -0.174614 0.180503 0.065153 0.035753 -0.003853 0.054298 -0.032432 -0.048630 -0.180165 0.045538 0.198082 0.042169 0.172654 -0.107743 0.127130 0.177341 0.109878 0.185339 -0.035798 -0.141200 0.227741 0.081016 0.001388 -0.112156 0.106709 0.025464 0.255158 -0.155733 0.162484 -0.053728 0.074652 -0.132343 -0.188068 0.133272 0.151348 0.110926 0.205667 0.041629 -0.194254 0.058087 -0.111804 0.052054 0.020883 0.045842 -0.137537 -0.328312 0.056731 0.090266 0.118358 -0.012504 0.034996 -0.005319 -0.001522 -0.017817 -0.062083 -0.101569 -0.130484 -0.317669 -0.040702 -0.162055 -0.010559 -0.179254 -0.200823 -0.117967 -0.142523 0.015489 0.092018 0.162070 -0.000031 -0.357116 0.001736 -0.048128 0.014728 0.076070 -0.186541 -0.228546 -0.136525 0.063475 -0.136104 0.201618 -0.232026 0.048707 -0.094183 0.221078 0.183992 -0.110419 -0.129236 0.103331 -0.135483 0.024340 -0.191156 0.137696 -0.037521 0.084711 0.017820 -0.106313 -0.031315 0.062325 0.161853 -0.205343 -0.035039 0.217506 0.056721 -0.057258 -0.436185 0.114466 -0.028438 0.111829 -0.010010 0.173322 -0.106229 0.153039 0.089385 -0.015326 0.061039 0.100354 0.055462 0.025463 0.009921 -0.128007 -0.175184 0.047746 0.055921 -0.240149 -0.045262 0.164095 0.051595 0.133775 0.080261 -0.063977 0.072997 0.039045 -0.022348 0.120151 0.104929 -0.317096 -0.100109 0.090343 0.138973 0.103493 0.225131 0.087686 -0.099982 -0.088447 -0.024753 -0.060902 0.027357 -0.080540 -0.132422 0.276608 -0.124262 -0.038911 -0.046962 0.045774 -0.075960 0.177909 0.001369 0.018736 0.316766 0.007910 0.112393 -0.143809 -0.020557 0.177038 -0.152389 0.033058 -0.004700 -0.029251 0.086068 0.047719 0.182911 0.021682 -0.007108 0.050594 -0.026473 -0.085473 0.228859 0.073464 -0.056497 0.019890 -0.038445 0.068023 0.070658 -0.184013 -0.298422 -0.137837 0.103208 -0.027693 0.127480 -0.217046 -0.015077 -0.214888 0.056104 -0.049203
( -0.044603 -0.004634 -0.238278 -0.222495 -0.008952 0.057826 -0.060072 -0.151082 -0.027792 0.079269 0.085892 -0.060243 0.124371 0.151171 -0.071710 -0.012487 0.251271 -0.210503 0.196584 0.136306 0.231637 0.057488 -0.069769 -0.169104 -0.044921 0.017669 0.056098 -0.200921 -0.036251 0.020488 -0.078239 -0.047398 0.112084 -0.226786 -0.090618 -0.042804 0.139753 -0.034182 0.020836 0.009701 -0.228884 -0.189388 0.156142 -0.149830 0.102827 -0.039613 0.254052 0.155324 0.024897 0.073345 -0.111781 -0.025267 0.049918 0.125221 -0.171215 -0.064079 -0.015091 0.061764 0.085732 0.148815 -0.198958 -0.024099 -0.001405 0.090903 -0.059529 0.195131 0.079622 -0.175331 -0.045531 -0.129510 0.091286 -0.162588 -0.056472 -0.049262 0.035238 0.052413 0.306188 -0.256390 -0.265821 -0.007659 -0.107399 0.089148 -0.017174 0.284509 0.063239 0.082362 0.041717 0.074511 0.325103 -0.063687 -0.025227 -0.125742 -0.061275 0.164120 0.273688 -0.036386 0.046682 -0.005643 0.049532 -0.178699 0.003625 -0.129453 -0.057107 0.045096 0.003044 0.133160 -0.060198 0.175860 0.077480 0.078146 -0.083682 0.010797 -0.107431 -0.010317 -0.248567 0.060696 0.193295 0.156229 0.078697 -0.108846 0.134905 0.122674 0.099982 0.146554 0.065148 -0.223060 0.202367 -0.017740 -0.126676 -0.072158 0.136290 0.060233 0.178396 -0.243196 0.129516 0.008055 0.025093 -0.042001 -0.125410 0.167425 0.114986 0.193468 0.271338 -0.016773 -0.067938 0.036544 -0.077867 0.086317 0.060113 0.005727 -0.062604 -0.312363 0.037879 0.088851 0.103969 -0.081117 -0.036468 0.007229 0.028581 -0.015622 -0.033410 -0.085910 -0.145202 -0.315765 -0.121391 -0.137512 0.043158 -0.229269 -0.163268 -0.076658 -0.138774 -0.061429 0.073785 0.089295 0.127763 -0.289692 0.038807 0.022168 0.036227 0.080838 -0.025763 -0.250317 -0.127569 0.033616 -0.078463 -0.059284 -0.214445 0.036405 -0.111550 0.177730 0.208013 -0.067899 -0.135204 0.086273 -0.163934 0.024908 -0.108684 0.085793 -0.054007 0.210453 0.085340 -0.114762 -0.061213 0.123416 0.051530 -0.194376 -0.002519 0.200080 0.006193 -0.074011 -0.384963 0.005347 0.068816 0.132631 -0.093590 0.223441 -0.101137 0.154355 0.027726 0.088894 0.049971 0.073148 0.127084 -0.054335 0.090590 -0.078085 -0.177635 0.105701 0.053700 -0.168348 -0.067536 0.112030 0.080410 0.115649 0.074251 -0.064506 0.098754 -0.029647 -0.014413 0.142740 0.064531 -0.267194 -0.081085 0.128864 0.101286 0.126552 0.338794 0.151138 -0.050841 -0.035064 0.012026 -0.032405 0.086642 -0.271041 -0.138951 0.293095 -0.092718 -0.040683 -0.069642 -0.131261 -0.081687 0.211298 0.006151 0.015263 0.350316 0.019204 0.112136 -0.189096 -0.053747 -0.015431 -0.142230 0.044007 0.148311 0.082168 0.124477 0.064751 0.215672 -0.052500 -0.087932 0.067074 0.025138 -0.103975 0.124253 0.117519 -0.095809 0.063421 -0.100449 0.111484 0.130399 -0.170726 -0.305712 -0.214625 0.046294 0.019923 0.125660 -0.171482 0.003718 -0.238595 0.063098 0.038927
出版社 0.040016 0.099065 -0.126230 0.099164 0.010230 0.307870 0.203440 0.059013 0.193947 0.188847 -0.403124 0.293684 0.469958 -0.421632 0.076831 -0.043802 -0.154512 -0.080323 -0.154099 -0.102734 0.107569 0.009891 0.070863 0.268112 0.233991 0.057699 -0.108374 -0.377291 0.131281 0.555445 -0.261203 0.000067 0.050020 0.062767 0.145553 0.108604 -0.222399 -0.030906 -0.059059 -0.262974 -0.281591 0.067757 -0.136572 0.057359 -0.216808 -0.021643 0.354128 0.352016 0.259421 -0.138087 -0.254770 -0.060064 -0.040816 0.090489 -0.246469 0.278815 -0.127063 -0.032879 -0.059631 -0.213693 0.363986 0.095726 0.008683 -0.208420 -0.431357 0.074578 0.243241 0.333416 0.249976 -0.038109 0.146659 -0.247648 -0.142638 -0.162476 -0.085831 0.156712 -0.296459 0.087361 -0.415782 -0.279255 0.257374 0.024683 0.063793 0.061474 0.026448 -0.342757 -0.108044 -0.153358 -0.153377 0.159375 0.466725 0.372592 -0.063071 0.352563 -0.224091 0.034003 -0.001742 -0.007323 -0.026119 -0.081080 0.132160 -0.084920 0.023712 -0.433575 -0.007658 -0.332704 -0.276706 0.283332 0.225489 0.112597 -0.142779 0.244658 -0.364973 -0.128208 -0.509553 0.117468 0.024439 0.016049 -0.108966 -0.148084 0.428987 -0.053075 0.260868 -0.224620 0.206236 0.089028 0.541613 0.134203 -0.010613 0.093080 -0.194029 0.078363 0.021721 -0.261423 -0.141322 0.326716 -0.496839 0.242635 -0.009463 0.135299 -0.517655 0.112441 -0.177392 0.043911 -0.251229 -0.079435 -0.052698 -0.215941 0.022044 0.094598 -0.164599 -0.166398 0.018000 -0.201786 0.130548 -0.145205 -0.001666 0.228027 0.288119 0.129788 -0.108252 -0.239098 0.173979 0.195352 0.273164 0.095597 -0.155473 -0.119484 -0.241083 -0.479613 0.222642 0.162416 -0.094540 -0.259461 -0.167110 -0.113942 0.233512 0.206802 0.032691 -0.119632 -0.042667 -0.318473 0.239612 0.107869 -0.010349 0.254136 0.285177 0.163505 0.479193 -0.009982 -0.312049 0.173731 0.186657 -0.025432 0.125890 -0.134651 0.033820 0.172841 0.061387 0.110012 -0.191341 0.348956 -0.110621 0.202257 0.326328 -0.124694 -0.087071 0.053534 0.125715 0.019425 0.161175 0.045642 0.344371 0.014721 0.380006 0.377024 -0.112323 -0.222753 0.064777 0.211586 0.221252 0.544142 -0.129796 -0.126634 -0.265033 0.042455 -0.420244 0.003189 -0.060284 -0.284815 -0.130353 -0.002214 -0.175959 -0.110836 0.135313 0.081279 0.001351 -0.077004 0.059457 -0.220467 -0.382444 0.020214 0.008326 -0.230787 -0.245750 -0.070247 0.114312 -0.004891 0.075942 -0.230078 -0.167894 -0.236768 -0.047838 0.029653 0.052479 -0.349734 0.233381 0.212396 0.450976 0.231897 -0.206734 0.069461 -0.166357 0.254924 0.257009 0.149437 0.476489 -0.185483 0.092242 -0.090852 -0.144398 0.310688 -0.035071 -0.467881 -0.076652 0.170371 -0.055491 -0.697306 0.269763 -0.427421 0.248127 0.049738 -0.182060 0.029518 0.001671 0.118068 -0.192853 -0.178667 -0.379015 0.022994 -0.034726 0.324088 -0.192962 -0.058318 -0.068031 0.681408 -0.319867 0.257446 0.231105 0.134204

